<?xml version="1.0"?>
<opencv_storage>
<myhaar type_id="opencv-haar-classifier">
  <size>
    24 24</size>
  <stages>
    <_>
      <trees>
        <_>
          <_>
            <feature>
              <rects>
                <_>
                  2 7 18 15 -1.</_>
                <_>
                  2 12 18 5 3.</_></rects>
              <tilted>0</tilted></feature>
            <threshold>0.1108826026320458</threshold>
            <left_val>-0.6133431792259216</left_val>
            <right_val>0.7718278765678406</right_val></_></_>
        <_>
          <_>
            <feature>
              <rects>
                <_>
                  7 21 10 3 -1.</_>
                <_>
                  7 22 10 1 3.</_></rects>
              <tilted>0</tilted></feature>
            <threshold>-3.2592380885034800e-003</threshold>
            <left_val>0.8330445885658264</left_val>
            <right_val>-0.3652972877025604</right_val></_></_>
        <_>
          <_>
            <feature>
              <rects>
                <_>
                  5 9 14 4 -1.</_>
                <_>
                  5 10 14 2 2.</_></rects>
              <tilted>0</tilted></feature>
            <threshold>-6.9028949365019798e-003</threshold>
            <left_val>0.8570039272308350</left_val>
            <right_val>-0.2176198065280914</right_val></_></_>
        <_>
          <_>
            <feature>
              <rects>
                <_>
                  9 10 7 3 -1.</_>
                <_>
                  9 11 7 1 3.</_></rects>
              <tilted>0</tilted></feature>
            <threshold>2.1425290033221245e-003</threshold>
            <left_val>-0.2532236874103546</left_val>
            <right_val>0.7077515125274658</right_val></_></_>
        <_>
          <_>
            <feature>
              <rects>
                <_>
                  6 13 12 4 -1.</_>
                <_>
                  6 14 12 2 2.</_></rects>
              <tilted>0</tilted></feature>
            <threshold>6.9414190948009491e-003</threshold>
            <left_val>-0.1869211047887802</left_val>
            <right_val>0.8932129144668579</right_val></_></_>
        <_>
          <_>
            <feature>
              <rects>
                <_>
                  15 6 9 6 -1.</_>
                <_>
                  15 8 9 2 3.</_></rects>
              <tilted>0</tilted></feature>
            <threshold>-0.0202683694660664</threshold>
            <left_val>0.7122361063957214</left_val>
            <right_val>-0.0279061105102301</right_val></_></_>
        <_>
          <_>
            <feature>
              <rects>
                <_>
                  4 2 14 8 -1.</_>
                <_>
                  4 4 14 4 2.</_></rects>
              <tilted>0</tilted></feature>
            <threshold>-0.0255659595131874</threshold>
            <left_val>0.7238093018531799</left_val>
            <right_val>-0.2820417881011963</right_val></_></_>
        <_>
          <_>
            <feature>
              <rects>
                <_>
                  9 3 10 6 -1.</_>
                <_>
                  9 5 10 2 3.</_></rects>
              <tilted>0</tilted></feature>
            <threshold>9.8426900804042816e-003</threshold>
            <left_val>-0.1614263951778412</left_val>
            <right_val>0.6597179770469666</right_val></_></_></trees>
      <stage_threshold>-1.2866350412368774</stage_threshold>
      <parent>-1</parent>
      <next>-1</next></_>
    <_>
      <trees>
        <_>
          <_>
            <feature>
              <rects>
                <_>
                  4 10 11 8 -1.</_>
                <_>
                  4 12 11 4 2.</_></rects>
              <tilted>0</tilted></feature>
            <threshold>0.0308303404599428</threshold>
            <left_val>-0.4105019867420197</left_val>
            <right_val>0.7651988267898560</right_val></_></_>
        <_>
          <_>
            <feature>
              <rects>
                <_>
                  7 21 10 3 -1.</_>
                <_>
                  7 22 10 1 3.</_></rects>
              <tilted>0</tilted></feature>
            <threshold>-3.9762370288372040e-003</threshold>
            <left_val>0.7061269283294678</left_val>
            <right_val>-0.3351081907749176</right_val></_></_>
        <_>
          <_>
            <feature>
              <rects>
                <_>
                  4 7 6 6 -1.</_>
                <_>
                  6 9 2 2 9.</_></rects>
              <tilted>0</tilted></feature>
            <threshold>-0.0319166406989098</threshold>
            <left_val>0.7631859183311462</left_val>
            <right_val>-0.1733831018209457</right_val></_></_>
        <_>
          <_>
            <feature>
              <rects>
                <_>
                  7 11 10 4 -1.</_>
                <_>
                  7 12 10 2 2.</_></rects>
              <tilted>0</tilted></feature>
            <threshold>-8.2742851227521896e-003</threshold>
            <left_val>0.8192468285560608</left_val>
            <right_val>-0.1928173005580902</right_val></_></_>
        <_>
          <_>
            <feature>
              <rects>
                <_>
                  4 11 12 3 -1.</_>
                <_>
                  4 12 12 1 3.</_></rects>
              <tilted>0</tilted></feature>
            <threshold>4.6278540976345539e-003</threshold>
            <left_val>-0.1953869014978409</left_val>
            <right_val>0.6659786105155945</right_val></_></_>
        <_>
          <_>
            <feature>
              <rects>
                <_>
                  13 18 8 6 -1.</_>
                <_>
                  17 18 4 3 2.</_>
                <_>
                  13 21 4 3 2.</_></rects>
              <tilted>0</tilted></feature>
            <threshold>-0.0106851402670145</threshold>
            <left_val>0.4487510025501251</left_val>
            <right_val>-0.2031743973493576</right_val></_></_>
        <_>
          <_>
            <feature>
              <rects>
                <_>
                  1 6 22 12 -1.</_>
                <_>
                  1 12 22 6 2.</_></rects>
              <tilted>0</tilted></feature>
            <threshold>-0.0117680495604873</threshold>
            <left_val>-0.5352340936660767</left_val>
            <right_val>0.2452802956104279</right_val></_></_>
        <_>
          <_>
            <feature>
              <rects>
                <_>
                  6 3 15 6 -1.</_>
                <_>
                  6 5 15 2 3.</_></rects>
              <tilted>0</tilted></feature>
            <threshold>0.0184717494994402</threshold>
            <left_val>-0.1622346043586731</left_val>
            <right_val>0.4546226859092712</right_val></_></_>
        <_>
          <_>
            <feature>
              <rects>
                <_>
                  7 6 6 6 -1.</_>
                <_>
                  7 8 6 2 3.</_></rects>
              <tilted>0</tilted></feature>
            <threshold>8.9535610750317574e-003</threshold>
            <left_val>-0.2451052069664002</left_val>
            <right_val>0.6525744795799255</right_val></_></_>
        <_>
          <_>
            <feature>
              <rects>
                <_>
                  21 11 3 4 -1.</_>
                <_>
                  22 11 1 4 3.</_></rects>
              <tilted>0</tilted></feature>
            <threshold>-4.3658860959112644e-003</threshold>
            <left_val>0.6040186882019043</left_val>
            <right_val>-0.0607471615076065</right_val></_></_>
        <_>
          <_>
            <feature>
              <rects>
                <_>
                  0 11 3 4 -1.</_>
                <_>
                  1 11 1 4 3.</_></rects>
              <tilted>0</tilted></feature>
            <threshold>-1.6130530275404453e-003</threshold>
            <left_val>0.5514768958091736</left_val>
            <right_val>-0.2358352988958359</right_val></_></_></trees>
      <stage_threshold>-1.3170889616012573</stage_threshold>
      <parent>0</parent>
      <next>-1</next></_>
    <_>
      <trees>
        <_>
          <_>
            <feature>
              <rects>
                <_>
                  7 12 5 12 -1.</_>
                <_>
                  7 18 5 6 2.</_></rects>
              <tilted>0</tilted></feature>
            <threshold>-7.3578138835728168e-003</threshold>
            <left_val>0.3069359064102173</left_val>
            <right_val>-0.7879832983016968</right_val></_></_>
        <_>
          <_>
            <feature>
              <rects>
                <_>
                  9 19 6 3 -1.</_>
                <_>
                  9 20 6 1 3.</_></rects>
              <tilted>0</tilted></feature>
            <threshold>1.4087699819356203e-003</threshold>
            <left_val>-0.4284231066703796</left_val>
            <right_val>0.5461598038673401</right_val></_></_>
        <_>
          <_>
            <feature>
              <rects>
                <_>
                  6 10 4 3 -1.</_>
                <_>
                  7 10 2 3 2.</_></rects>
              <tilted>0</tilted></feature>
            <threshold>-1.3650499749928713e-003</threshold>
            <left_val>0.5949950218200684</left_val>
            <right_val>-0.3028810024261475</right_val></_></_>
        <_>
          <_>
            <feature>
              <rects>
                <_>
                  11 11 6 3 -1.</_>
                <_>
                  11 12 6 1 3.</_></rects>
              <tilted>0</tilted></feature>
            <threshold>2.8191530145704746e-003</threshold>
            <left_val>-0.1754505932331085</left_val>
            <right_val>0.4965288937091827</right_val></_></_>
        <_>
          <_>
            <feature>
              <rects>
                <_>
                  9 12 2 3 -1.</_>
                <_>
                  9 13 2 1 3.</_></rects>
              <tilted>0</tilted></feature>
            <threshold>1.0203169658780098e-003</threshold>
            <left_val>-0.1955872029066086</left_val>
            <right_val>0.5473793148994446</right_val></_></_>
        <_>
          <_>
            <feature>
              <rects>
                <_>
                  10 11 4 4 -1.</_>
                <_>
                  10 12 4 2 2.</_></rects>
              <tilted>0</tilted></feature>
            <threshold>-1.4051370089873672e-003</threshold>
            <left_val>0.5650262832641602</left_val>
            <right_val>-0.2512952983379364</right_val></_></_>
        <_>
          <_>
            <feature>
              <rects>
                <_>
                  6 9 3 2 -1.</_>
                <_>
                  7 10 1 2 3.</_></rects>
              <tilted>1</tilted></feature>
            <threshold>-2.6006619445979595e-003</threshold>
            <left_val>0.5804405808448792</left_val>
            <right_val>-0.2109431028366089</right_val></_></_>
        <_>
          <_>
            <feature>
              <rects>
                <_>
                  16 2 8 11 -1.</_>
                <_>
                  18 2 4 11 2.</_></rects>
              <tilted>0</tilted></feature>
            <threshold>-0.0296621695160866</threshold>
            <left_val>0.4697487056255341</left_val>
            <right_val>-0.0961670726537704</right_val></_></_>
        <_>
          <_>
            <feature>
              <rects>
                <_>
                  0 4 8 9 -1.</_>
                <_>
                  2 4 4 9 2.</_></rects>
              <tilted>0</tilted></feature>
            <threshold>-0.0191531591117382</threshold>
            <left_val>0.5553581118583679</left_val>
            <right_val>-0.2376963049173355</right_val></_></_>
        <_>
          <_>
            <feature>
              <rects>
                <_>
                  11 18 10 6 -1.</_>
                <_>
                  16 18 5 3 2.</_>
                <_>
                  11 21 5 3 2.</_></rects>
              <tilted>0</tilted></feature>
            <threshold>-0.0195705592632294</threshold>
            <left_val>0.3867320120334625</left_val>
            <right_val>-0.1928299069404602</right_val></_></_>
        <_>
          <_>
            <feature>
              <rects>
                <_>
                  6 7 3 4 -1.</_>
                <_>
                  6 8 3 2 2.</_></rects>
              <tilted>0</tilted></feature>
            <threshold>-3.0694319866597652e-003</threshold>
            <left_val>0.6156132221221924</left_val>
            <right_val>-0.2004081010818481</right_val></_></_>
        <_>
          <_>
            <feature>
              <rects>
                <_>
                  19 12 4 1 -1.</_>
                <_>
                  20 12 2 1 2.</_></rects>
              <tilted>0</tilted></feature>
            <threshold>-1.2317909859120846e-003</threshold>
            <left_val>0.5444812178611755</left_val>
            <right_val>-0.0883439108729362</right_val></_></_>
        <_>
          <_>
            <feature>
              <rects>
                <_>
                  3 8 2 4 -1.</_>
                <_>
                  3 8 1 2 2.</_>
                <_>
                  4 10 1 2 2.</_></rects>
              <tilted>0</tilted></feature>
            <threshold>-9.5174030866473913e-004</threshold>
            <left_val>0.6132106184959412</left_val>
            <right_val>-0.1869390010833740</right_val></_></_>
        <_>
          <_>
            <feature>
              <rects>
                <_>
                  11 18 10 6 -1.</_>
                <_>
                  16 18 5 3 2.</_>
                <_>
                  11 21 5 3 2.</_></rects>
              <tilted>0</tilted></feature>
            <threshold>-0.0329339392483234</threshold>
            <left_val>0.2716897130012512</left_val>
            <right_val>-0.0531839914619923</right_val></_></_></trees>
      <stage_threshold>-1.4087769985198975</stage_threshold>
      <parent>1</parent>
      <next>-1</next></_>
    <_>
      <trees>
        <_>
          <_>
            <feature>
              <rects>
                <_>
                  5 9 10 3 -1.</_>
                <_>
                  5 10 10 1 3.</_></rects>
              <tilted>0</tilted></feature>
            <threshold>-6.1470679938793182e-003</threshold>
            <left_val>0.6726272702217102</left_val>
            <right_val>-0.3056780993938446</right_val></_></_>
        <_>
          <_>
            <feature>
              <rects>
                <_>
                  20 14 4 6 -1.</_>
                <_>
                  21 15 2 6 2.</_></rects>
              <tilted>1</tilted></feature>
            <threshold>-0.0144863296300173</threshold>
            <left_val>0.6446182727813721</left_val>
            <right_val>-0.2460587024688721</right_val></_></_>
        <_>
          <_>
            <feature>
              <rects>
                <_>
                  3 18 8 6 -1.</_>
                <_>
                  3 18 4 3 2.</_>
                <_>
                  7 21 4 3 2.</_></rects>
              <tilted>0</tilted></feature>
            <threshold>-0.0122427698224783</threshold>
            <left_val>0.4968994855880737</left_val>
            <right_val>-0.3034309148788452</right_val></_></_>
        <_>
          <_>
            <feature>
              <rects>
                <_>
                  12 14 1 3 -1.</_>
                <_>
                  12 15 1 1 3.</_></rects>
              <tilted>0</tilted></feature>
            <threshold>8.2569732330739498e-004</threshold>
            <left_val>-0.1721761971712112</left_val>
            <right_val>0.4906964004039764</right_val></_></_>
        <_>
          <_>
            <feature>
              <rects>
                <_>
                  6 9 10 14 -1.</_>
                <_>
                  6 16 10 7 2.</_></rects>
              <tilted>0</tilted></feature>
            <threshold>0.0428542718291283</threshold>
            <left_val>0.1792003959417343</left_val>
            <right_val>-0.7072485089302063</right_val></_></_>
        <_>
          <_>
            <feature>
              <rects>
                <_>
                  7 7 11 12 -1.</_>
                <_>
                  7 13 11 6 2.</_></rects>
              <tilted>0</tilted></feature>
            <threshold>-0.0452519394457340</threshold>
            <left_val>-0.6674277186393738</left_val>
            <right_val>0.1649702936410904</right_val></_></_>
        <_>
          <_>
            <feature>
              <rects>
                <_>
                  3 3 15 6 -1.</_>
                <_>
                  3 5 15 2 3.</_></rects>
              <tilted>0</tilted></feature>
            <threshold>0.0302812792360783</threshold>
            <left_val>-0.2170915007591248</left_val>
            <right_val>0.5309218168258667</right_val></_></_>
        <_>
          <_>
            <feature>
              <rects>
                <_>
                  0 10 24 9 -1.</_>
                <_>
                  6 10 12 9 2.</_></rects>
              <tilted>0</tilted></feature>
            <threshold>-0.0909227132797241</threshold>
            <left_val>0.5543025732040405</left_val>
            <right_val>-0.1749410927295685</right_val></_></_>
        <_>
          <_>
            <feature>
              <rects>
                <_>
                  0 8 24 2 -1.</_>
                <_>
                  6 8 12 2 2.</_></rects>
              <tilted>0</tilted></feature>
            <threshold>0.0442415997385979</threshold>
            <left_val>-0.1550973057746887</left_val>
            <right_val>0.7071855068206787</right_val></_></_>
        <_>
          <_>
            <feature>
              <rects>
                <_>
                  14 22 3 2 -1.</_>
                <_>
                  14 23 3 1 2.</_></rects>
              <tilted>0</tilted></feature>
            <threshold>9.7885509603656828e-005</threshold>
            <left_val>-0.1118296012282372</left_val>
            <right_val>0.2089132070541382</right_val></_></_>
        <_>
          <_>
            <feature>
              <rects>
                <_>
                  2 9 7 3 -1.</_>
                <_>
                  2 10 7 1 3.</_></rects>
              <tilted>0</tilted></feature>
            <threshold>1.8607360543683171e-003</threshold>
            <left_val>-0.2046684026718140</left_val>
            <right_val>0.4696793854236603</right_val></_></_>
        <_>
          <_>
            <feature>
              <rects>
                <_>
                  15 5 8 12 -1.</_>
                <_>
                  15 11 8 6 2.</_></rects>
              <tilted>0</tilted></feature>
            <threshold>-0.0119777899235487</threshold>
            <left_val>-0.4988738894462585</left_val>
            <right_val>0.1625141948461533</right_val></_></_>
        <_>
          <_>
            <feature>
              <rects>
                <_>
                  7 6 3 3 -1.</_>
                <_>
                  7 7 3 1 3.</_></rects>
              <tilted>0</tilted></feature>
            <threshold>6.4115342684090137e-004</threshold>
            <left_val>-0.2520937025547028</left_val>
            <right_val>0.3776780068874359</right_val></_></_>
        <_>
          <_>
            <feature>
              <rects>
                <_>
                  20 9 3 2 -1.</_>
                <_>
                  21 9 1 2 3.</_></rects>
              <tilted>0</tilted></feature>
            <threshold>-1.6075719613581896e-003</threshold>
            <left_val>0.5218536853790283</left_val>
            <right_val>-0.1535474061965942</right_val></_></_>
        <_>
          <_>
            <feature>
              <rects>
                <_>
                  12 17 2 1 -1.</_>
                <_>
                  12 17 1 1 2.</_></rects>
              <tilted>1</tilted></feature>
            <threshold>-1.8749940863926895e-005</threshold>
            <left_val>0.3597890138626099</left_val>
            <right_val>-0.2358987927436829</right_val></_></_></trees>
      <stage_threshold>-1.1456840038299561</stage_threshold>
      <parent>2</parent>
      <next>-1</next></_>
    <_>
      <trees>
        <_>
          <_>
            <feature>
              <rects>
                <_>
                  9 10 2 1 -1.</_>
                <_>
                  10 10 1 1 2.</_></rects>
              <tilted>0</tilted></feature>
            <threshold>1.7173459127661772e-005</threshold>
            <left_val>-0.4732984006404877</left_val>
            <right_val>0.4143750965595245</right_val></_></_>
        <_>
          <_>
            <feature>
              <rects>
                <_>
                  19 15 4 5 -1.</_>
                <_>
                  20 16 2 5 2.</_></rects>
              <tilted>1</tilted></feature>
            <threshold>-0.0225550401955843</threshold>
            <left_val>0.6979678869247437</left_val>
            <right_val>-0.1922997981309891</right_val></_></_>
        <_>
          <_>
            <feature>
              <rects>
                <_>
                  5 17 1 2 -1.</_>
                <_>
                  5 18 1 1 2.</_></rects>
              <tilted>0</tilted></feature>
            <threshold>-1.1230159725528210e-004</threshold>
            <left_val>0.3720284104347229</left_val>
            <right_val>-0.4041703939437866</right_val></_></_>
        <_>
          <_>
            <feature>
              <rects>
                <_>
                  15 5 1 2 -1.</_>
                <_>
                  15 6 1 1 2.</_></rects>
              <tilted>0</tilted></feature>
            <threshold>-3.2266711059492081e-005</threshold>
            <left_val>0.1938952058553696</left_val>
            <right_val>-0.1324616968631744</right_val></_></_>
        <_>
          <_>
            <feature>
              <rects>
                <_>
                  8 5 1 2 -1.</_>
                <_>
                  8 6 1 1 2.</_></rects>
              <tilted>0</tilted></feature>
            <threshold>4.5926830352982506e-005</threshold>
            <left_val>-0.3359661102294922</left_val>
            <right_val>0.3928529918193817</right_val></_></_>
        <_>
          <_>
            <feature>
              <rects>
                <_>
                  17 9 5 4 -1.</_>
                <_>
                  17 11 5 2 2.</_></rects>
              <tilted>0</tilted></feature>
            <threshold>2.8188119176775217e-003</threshold>
            <left_val>-0.1820665001869202</left_val>
            <right_val>0.2368098944425583</right_val></_></_>
        <_>
          <_>
            <feature>
              <rects>
                <_>
                  2 9 5 4 -1.</_>
                <_>
                  2 11 5 2 2.</_></rects>
              <tilted>0</tilted></feature>
            <threshold>1.0401590261608362e-003</threshold>
            <left_val>-0.4996803998947144</left_val>
            <right_val>0.2289424985647202</right_val></_></_>
        <_>
          <_>
            <feature>
              <rects>
                <_>
                  7 8 11 3 -1.</_>
                <_>
                  7 9 11 1 3.</_></rects>
              <tilted>0</tilted></feature>
            <threshold>1.9669379107654095e-003</threshold>
            <left_val>-0.2961221039295197</left_val>
            <right_val>0.4354009032249451</right_val></_></_>
        <_>
          <_>
            <feature>
              <rects>
                <_>
                  11 14 1 10 -1.</_>
                <_>
                  11 19 1 5 2.</_></rects>
              <tilted>0</tilted></feature>
            <threshold>-1.6831970424391329e-004</threshold>
            <left_val>0.1861356943845749</left_val>
            <right_val>-0.6966236233711243</right_val></_></_>
        <_>
          <_>
            <feature>
              <rects>
                <_>
                  21 5 3 3 -1.</_>
                <_>
                  22 5 1 3 3.</_></rects>
              <tilted>0</tilted></feature>
            <threshold>-2.6112159248441458e-003</threshold>
            <left_val>0.6284096240997315</left_val>
            <right_val>-0.1524273008108139</right_val></_></_>
        <_>
          <_>
            <feature>
              <rects>
                <_>
                  0 5 3 3 -1.</_>
                <_>
                  1 5 1 3 3.</_></rects>
              <tilted>0</tilted></feature>
            <threshold>-1.0251010535284877e-003</threshold>
            <left_val>0.5444812178611755</left_val>
            <right_val>-0.2245745062828064</right_val></_></_>
        <_>
          <_>
            <feature>
              <rects>
                <_>
                  0 5 24 6 -1.</_>
                <_>
                  8 7 8 2 9.</_></rects>
              <tilted>0</tilted></feature>
            <threshold>0.2419283986091614</threshold>
            <left_val>-0.1481660008430481</left_val>
            <right_val>0.7327135205268860</right_val></_></_>
        <_>
          <_>
            <feature>
              <rects>
                <_>
                  7 22 1 2 -1.</_>
                <_>
                  7 23 1 1 2.</_></rects>
              <tilted>0</tilted></feature>
            <threshold>3.4271921322215348e-005</threshold>
            <left_val>-0.3843685090541840</left_val>
            <right_val>0.3563615977764130</right_val></_></_>
        <_>
          <_>
            <feature>
              <rects>
                <_>
                  17 5 2 6 -1.</_>
                <_>
                  18 5 1 3 2.</_>
                <_>
                  17 8 1 3 2.</_></rects>
              <tilted>0</tilted></feature>
            <threshold>-1.0288460180163383e-003</threshold>
            <left_val>0.3284847140312195</left_val>
            <right_val>-0.1889733970165253</right_val></_></_>
        <_>
          <_>
            <feature>
              <rects>
                <_>
                  5 5 2 6 -1.</_>
                <_>
                  5 5 1 3 2.</_>
                <_>
                  6 8 1 3 2.</_></rects>
              <tilted>0</tilted></feature>
            <threshold>-1.4085120055824518e-003</threshold>
            <left_val>0.5695772171020508</left_val>
            <right_val>-0.2460401952266693</right_val></_></_></trees>
      <stage_threshold>-1.3790769577026367</stage_threshold>
      <parent>3</parent>
      <next>-1</next></_>
    <_>
      <trees>
        <_>
          <_>
            <feature>
              <rects>
                <_>
                  12 19 4 1 -1.</_>
                <_>
                  12 19 2 1 2.</_></rects>
              <tilted>1</tilted></feature>
            <threshold>4.0909540257416666e-004</threshold>
            <left_val>-0.5834529995918274</left_val>
            <right_val>0.2988196909427643</right_val></_></_>
        <_>
          <_>
            <feature>
              <rects>
                <_>
                  12 12 6 10 -1.</_>
                <_>
                  12 17 6 5 2.</_></rects>
              <tilted>0</tilted></feature>
            <threshold>-9.0594403445720673e-003</threshold>
            <left_val>0.1404792964458466</left_val>
            <right_val>-0.4102714955806732</right_val></_></_>
        <_>
          <_>
            <feature>
              <rects>
                <_>
                  11 4 8 2 -1.</_>
                <_>
                  11 4 4 2 2.</_></rects>
              <tilted>1</tilted></feature>
            <threshold>8.7734038243070245e-004</threshold>
            <left_val>-0.3711433112621307</left_val>
            <right_val>0.3914735913276672</right_val></_></_>
        <_>
          <_>
            <feature>
              <rects>
                <_>
                  12 5 8 18 -1.</_>
                <_>
                  12 11 8 6 3.</_></rects>
              <tilted>0</tilted></feature>
            <threshold>0.1777548938989639</threshold>
            <left_val>4.7215837985277176e-003</left_val>
            <right_val>-0.7265853881835938</right_val></_></_>
        <_>
          <_>
            <feature>
              <rects>
                <_>
                  4 5 8 18 -1.</_>
                <_>
                  4 11 8 6 3.</_></rects>
              <tilted>0</tilted></feature>
            <threshold>5.4627978242933750e-003</threshold>
            <left_val>-0.6448351144790649</left_val>
            <right_val>0.2744893133640289</right_val></_></_>
        <_>
          <_>
            <feature>
              <rects>
                <_>
                  17 16 3 2 -1.</_>
                <_>
                  18 16 1 2 3.</_></rects>
              <tilted>0</tilted></feature>
            <threshold>2.8522079810500145e-004</threshold>
            <left_val>-0.3131417036056519</left_val>
            <right_val>0.3029403090476990</right_val></_></_>
        <_>
          <_>
            <feature>
              <rects>
                <_>
                  4 15 3 4 -1.</_>
                <_>
                  5 15 1 4 3.</_></rects>
              <tilted>0</tilted></feature>
            <threshold>5.9650681214407086e-004</threshold>
            <left_val>-0.2951610982418060</left_val>
            <right_val>0.3763377070426941</right_val></_></_>
        <_>
          <_>
            <feature>
              <rects>
                <_>
                  11 11 4 4 -1.</_>
                <_>
                  11 12 4 2 2.</_></rects>
              <tilted>0</tilted></feature>
            <threshold>2.7716639451682568e-003</threshold>
            <left_val>-0.2362090051174164</left_val>
            <right_val>0.3804695010185242</right_val></_></_>
        <_>
          <_>
            <feature>
              <rects>
                <_>
                  9 12 8 4 -1.</_>
                <_>
                  9 12 8 2 2.</_></rects>
              <tilted>1</tilted></feature>
            <threshold>1.0013349819928408e-003</threshold>
            <left_val>-0.5930330157279968</left_val>
            <right_val>0.2100799977779388</right_val></_></_>
        <_>
          <_>
            <feature>
              <rects>
                <_>
                  17 9 2 10 -1.</_>
                <_>
                  18 9 1 5 2.</_>
                <_>
                  17 14 1 5 2.</_></rects>
              <tilted>0</tilted></feature>
            <threshold>1.8472259398549795e-004</threshold>
            <left_val>-0.3768024146556854</left_val>
            <right_val>0.2006597965955734</right_val></_></_>
        <_>
          <_>
            <feature>
              <rects>
                <_>
                  3 3 16 3 -1.</_>
                <_>
                  2 4 16 1 3.</_></rects>
              <tilted>1</tilted></feature>
            <threshold>-1.2345960130915046e-003</threshold>
            <left_val>0.3800460994243622</left_val>
            <right_val>-0.4692220985889435</right_val></_></_>
        <_>
          <_>
            <feature>
              <rects>
                <_>
                  14 22 3 2 -1.</_>
                <_>
                  14 23 3 1 2.</_></rects>
              <tilted>0</tilted></feature>
            <threshold>3.8425010279752314e-004</threshold>
            <left_val>-0.2556124925613403</left_val>
            <right_val>0.2783572077751160</right_val></_></_>
        <_>
          <_>
            <feature>
              <rects>
                <_>
                  1 8 18 3 -1.</_>
                <_>
                  1 9 18 1 3.</_></rects>
              <tilted>0</tilted></feature>
            <threshold>8.5458741523325443e-004</threshold>
            <left_val>-0.3743683993816376</left_val>
            <right_val>0.4622685015201569</right_val></_></_>
        <_>
          <_>
            <feature>
              <rects>
                <_>
                  8 8 11 3 -1.</_>
                <_>
                  8 9 11 1 3.</_></rects>
              <tilted>0</tilted></feature>
            <threshold>-8.0599181819707155e-004</threshold>
            <left_val>0.4487420022487640</left_val>
            <right_val>-0.4532929956912994</right_val></_></_>
        <_>
          <_>
            <feature>
              <rects>
                <_>
                  9 8 6 3 -1.</_>
                <_>
                  9 9 6 1 3.</_></rects>
              <tilted>0</tilted></feature>
            <threshold>3.6691050627268851e-004</threshold>
            <left_val>-0.3721460103988648</left_val>
            <right_val>0.5105581879615784</right_val></_></_>
        <_>
          <_>
            <feature>
              <rects>
                <_>
                  8 8 11 3 -1.</_>
                <_>
                  8 9 11 1 3.</_></rects>
              <tilted>0</tilted></feature>
            <threshold>-7.9580757301300764e-004</threshold>
            <left_val>0.3192287087440491</left_val>
            <right_val>-0.4025779962539673</right_val></_></_>
        <_>
          <_>
            <feature>
              <rects>
                <_>
                  10 14 4 10 -1.</_>
                <_>
                  10 19 4 5 2.</_></rects>
              <tilted>0</tilted></feature>
            <threshold>-1.4827350387349725e-003</threshold>
            <left_val>0.3169390857219696</left_val>
            <right_val>-0.6470519900321960</right_val></_></_>
        <_>
          <_>
            <feature>
              <rects>
                <_>
                  9 17 6 4 -1.</_>
                <_>
                  9 19 6 2 2.</_></rects>
              <tilted>0</tilted></feature>
            <threshold>2.5136751355603337e-004</threshold>
            <left_val>-0.3245959877967835</left_val>
            <right_val>0.5400121808052063</right_val></_></_>
        <_>
          <_>
            <feature>
              <rects>
                <_>
                  5 12 13 3 -1.</_>
                <_>
                  5 13 13 1 3.</_></rects>
              <tilted>0</tilted></feature>
            <threshold>-7.9142989125102758e-004</threshold>
            <left_val>0.5107442140579224</left_val>
            <right_val>-0.4116846919059753</right_val></_></_>
        <_>
          <_>
            <feature>
              <rects>
                <_>
                  13 12 1 3 -1.</_>
                <_>
                  13 13 1 1 3.</_></rects>
              <tilted>0</tilted></feature>
            <threshold>1.2990069808438420e-004</threshold>
            <left_val>-0.2057389020919800</left_val>
            <right_val>0.3178349137306213</right_val></_></_>
        <_>
          <_>
            <feature>
              <rects>
                <_>
                  8 12 4 8 -1.</_>
                <_>
                  8 16 4 4 2.</_></rects>
              <tilted>0</tilted></feature>
            <threshold>-1.9218619854655117e-005</threshold>
            <left_val>0.2828513979911804</left_val>
            <right_val>-0.5750194191932678</right_val></_></_>
        <_>
          <_>
            <feature>
              <rects>
                <_>
                  13 13 2 3 -1.</_>
                <_>
                  13 14 2 1 3.</_></rects>
              <tilted>0</tilted></feature>
            <threshold>-1.5487859855056740e-005</threshold>
            <left_val>0.2730833888053894</left_val>
            <right_val>-0.1980336010456085</right_val></_></_>
        <_>
          <_>
            <feature>
              <rects>
                <_>
                  3 18 8 6 -1.</_>
                <_>
                  3 18 4 3 2.</_>
                <_>
                  7 21 4 3 2.</_></rects>
              <tilted>0</tilted></feature>
            <threshold>-7.1768378838896751e-003</threshold>
            <left_val>0.3956448137760162</left_val>
            <right_val>-0.3748990893363953</right_val></_></_>
        <_>
          <_>
            <feature>
              <rects>
                <_>
                  15 20 2 2 -1.</_>
                <_>
                  16 20 1 1 2.</_>
                <_>
                  15 21 1 1 2.</_></rects>
              <tilted>0</tilted></feature>
            <threshold>1.2187960237497464e-004</threshold>
            <left_val>-0.2731612920761108</left_val>
            <right_val>0.4873552024364471</right_val></_></_>
        <_>
          <_>
            <feature>
              <rects>
                <_>
                  8 2 4 8 -1.</_>
                <_>
                  8 4 4 4 2.</_></rects>
              <tilted>0</tilted></feature>
            <threshold>-2.1900620777159929e-003</threshold>
            <left_val>0.4246133863925934</left_val>
            <right_val>-0.3553965091705322</right_val></_></_></trees>
      <stage_threshold>-1.4193739891052246</stage_threshold>
      <parent>4</parent>
      <next>-1</next></_>
    <_>
      <trees>
        <_>
          <_>
            <feature>
              <rects>
                <_>
                  11 19 4 1 -1.</_>
                <_>
                  11 19 2 1 2.</_></rects>
              <tilted>1</tilted></feature>
            <threshold>1.7179689602926373e-003</threshold>
            <left_val>-0.5285199880599976</left_val>
            <right_val>0.3620277941226959</right_val></_></_>
        <_>
          <_>
            <feature>
              <rects>
                <_>
                  20 14 4 6 -1.</_>
                <_>
                  21 15 2 6 2.</_></rects>
              <tilted>1</tilted></feature>
            <threshold>-0.0185350701212883</threshold>
            <left_val>0.6366003751754761</left_val>
            <right_val>-0.2930381894111633</right_val></_></_>
        <_>
          <_>
            <feature>
              <rects>
                <_>
                  0 5 8 9 -1.</_>
                <_>
                  0 8 8 3 3.</_></rects>
              <tilted>0</tilted></feature>
            <threshold>-3.0779101507505402e-005</threshold>
            <left_val>0.3047631978988648</left_val>
            <right_val>-0.4768468141555786</right_val></_></_>
        <_>
          <_>
            <feature>
              <rects>
                <_>
                  19 16 3 4 -1.</_>
                <_>
                  20 17 1 4 3.</_></rects>
              <tilted>1</tilted></feature>
            <threshold>3.9206207729876041e-003</threshold>
            <left_val>-0.1079415008425713</left_val>
            <right_val>0.4162685871124268</right_val></_></_>
        <_>
          <_>
            <feature>
              <rects>
                <_>
                  7 22 3 2 -1.</_>
                <_>
                  7 23 3 1 2.</_></rects>
              <tilted>0</tilted></feature>
            <threshold>1.7735819710651413e-005</threshold>
            <left_val>-0.4434956014156342</left_val>
            <right_val>0.2913202047348023</right_val></_></_>
        <_>
          <_>
            <feature>
              <rects>
                <_>
                  12 5 11 16 -1.</_>
                <_>
                  12 9 11 8 2.</_></rects>
              <tilted>0</tilted></feature>
            <threshold>1.8656039610505104e-003</threshold>
            <left_val>-0.4123527109622955</left_val>
            <right_val>0.1687085926532745</right_val></_></_>
        <_>
          <_>
            <feature>
              <rects>
                <_>
                  8 6 8 6 -1.</_>
                <_>
                  10 6 4 6 2.</_></rects>
              <tilted>0</tilted></feature>
            <threshold>6.0776649042963982e-003</threshold>
            <left_val>-0.4384072124958038</left_val>
            <right_val>0.3471086025238037</right_val></_></_>
        <_>
          <_>
            <feature>
              <rects>
                <_>
                  3 11 18 12 -1.</_>
                <_>
                  12 11 9 6 2.</_>
                <_>
                  3 17 9 6 2.</_></rects>
              <tilted>0</tilted></feature>
            <threshold>-3.5487329587340355e-003</threshold>
            <left_val>0.3238303959369659</left_val>
            <right_val>-0.5606890916824341</right_val></_></_>
        <_>
          <_>
            <feature>
              <rects>
                <_>
                  1 12 1 12 -1.</_>
                <_>
                  1 18 1 6 2.</_></rects>
              <tilted>0</tilted></feature>
            <threshold>8.5576451965607703e-005</threshold>
            <left_val>-0.3206641077995300</left_val>
            <right_val>0.4324446022510529</right_val></_></_>
        <_>
          <_>
            <feature>
              <rects>
                <_>
                  4 7 20 16 -1.</_>
                <_>
                  4 11 20 8 2.</_></rects>
              <tilted>0</tilted></feature>
            <threshold>5.2138371393084526e-004</threshold>
            <left_val>-0.6416587233543396</left_val>
            <right_val>0.1476521044969559</right_val></_></_>
        <_>
          <_>
            <feature>
              <rects>
                <_>
                  8 15 4 2 -1.</_>
                <_>
                  9 15 2 2 2.</_></rects>
              <tilted>0</tilted></feature>
            <threshold>-2.1239140187390149e-004</threshold>
            <left_val>0.3847922086715698</left_val>
            <right_val>-0.4753915965557098</right_val></_></_>
        <_>
          <_>
            <feature>
              <rects>
                <_>
                  12 15 4 1 -1.</_>
                <_>
                  13 15 2 1 2.</_></rects>
              <tilted>0</tilted></feature>
            <threshold>-2.8888109955005348e-004</threshold>
            <left_val>0.3424712121486664</left_val>
            <right_val>-0.1746045053005219</right_val></_></_>
        <_>
          <_>
            <feature>
              <rects>
                <_>
                  10 14 4 2 -1.</_>
                <_>
                  11 14 2 2 2.</_></rects>
              <tilted>0</tilted></feature>
            <threshold>-5.9649930335581303e-004</threshold>
            <left_val>0.5722491145133972</left_val>
            <right_val>-0.3044134080410004</right_val></_></_>
        <_>
          <_>
            <feature>
              <rects>
                <_>
                  7 20 11 4 -1.</_>
                <_>
                  7 21 11 2 2.</_></rects>
              <tilted>0</tilted></feature>
            <threshold>2.4352819309569895e-004</threshold>
            <left_val>-0.1944395005702972</left_val>
            <right_val>0.5278019905090332</right_val></_></_>
        <_>
          <_>
            <feature>
              <rects>
                <_>
                  10 9 4 15 -1.</_>
                <_>
                  10 14 4 5 3.</_></rects>
              <tilted>0</tilted></feature>
            <threshold>3.2957440707832575e-003</threshold>
            <left_val>-0.5989215970039368</left_val>
            <right_val>0.2553484141826630</right_val></_></_>
        <_>
          <_>
            <feature>
              <rects>
                <_>
                  17 9 2 10 -1.</_>
                <_>
                  18 9 1 5 2.</_>
                <_>
                  17 14 1 5 2.</_></rects>
              <tilted>0</tilted></feature>
            <threshold>1.7113909416366369e-004</threshold>
            <left_val>-0.3969815969467163</left_val>
            <right_val>0.1181458979845047</right_val></_></_>
        <_>
          <_>
            <feature>
              <rects>
                <_>
                  5 9 2 10 -1.</_>
                <_>
                  5 9 1 5 2.</_>
                <_>
                  6 14 1 5 2.</_></rects>
              <tilted>0</tilted></feature>
            <threshold>3.5809789551422000e-005</threshold>
            <left_val>-0.5118780732154846</left_val>
            <right_val>0.3593772947788239</right_val></_></_>
        <_>
          <_>
            <feature>
              <rects>
                <_>
                  16 13 1 2 -1.</_>
                <_>
                  16 14 1 1 2.</_></rects>
              <tilted>0</tilted></feature>
            <threshold>-1.7622920495341532e-005</threshold>
            <left_val>0.3842043876647949</left_val>
            <right_val>-0.4131799042224884</right_val></_></_>
        <_>
          <_>
            <feature>
              <rects>
                <_>
                  4 6 2 4 -1.</_>
                <_>
                  4 6 1 2 2.</_>
                <_>
                  5 8 1 2 2.</_></rects>
              <tilted>0</tilted></feature>
            <threshold>5.9491190768312663e-005</threshold>
            <left_val>-0.4323390126228333</left_val>
            <right_val>0.5487554073333740</right_val></_></_>
        <_>
          <_>
            <feature>
              <rects>
                <_>
                  13 10 4 14 -1.</_>
                <_>
                  13 17 4 7 2.</_></rects>
              <tilted>0</tilted></feature>
            <threshold>-2.0835679606534541e-005</threshold>
            <left_val>0.2012857049703598</left_val>
            <right_val>-0.5312371850013733</right_val></_></_>
        <_>
          <_>
            <feature>
              <rects>
                <_>
                  2 12 18 4 -1.</_>
                <_>
                  2 12 9 2 2.</_>
                <_>
                  11 14 9 2 2.</_></rects>
              <tilted>0</tilted></feature>
            <threshold>7.0986768696457148e-004</threshold>
            <left_val>-0.4716000854969025</left_val>
            <right_val>0.4742279946804047</right_val></_></_>
        <_>
          <_>
            <feature>
              <rects>
                <_>
                  18 5 6 3 -1.</_>
                <_>
                  20 5 2 3 3.</_></rects>
              <tilted>0</tilted></feature>
            <threshold>-5.7692948757903650e-005</threshold>
            <left_val>0.1904639005661011</left_val>
            <right_val>-0.4710102081298828</right_val></_></_>
        <_>
          <_>
            <feature>
              <rects>
                <_>
                  11 2 11 6 -1.</_>
                <_>
                  9 4 11 2 3.</_></rects>
              <tilted>1</tilted></feature>
            <threshold>1.0255069937556982e-003</threshold>
            <left_val>-0.5092688202857971</left_val>
            <right_val>0.4429166018962860</right_val></_></_>
        <_>
          <_>
            <feature>
              <rects>
                <_>
                  4 22 16 2 -1.</_>
                <_>
                  8 22 8 2 2.</_></rects>
              <tilted>0</tilted></feature>
            <threshold>-1.4917309454176575e-004</threshold>
            <left_val>0.3116421103477478</left_val>
            <right_val>-0.7146105170249939</right_val></_></_>
        <_>
          <_>
            <feature>
              <rects>
                <_>
                  4 2 3 3 -1.</_>
                <_>
                  5 3 1 3 3.</_></rects>
              <tilted>1</tilted></feature>
            <threshold>-4.0693990886211395e-003</threshold>
            <left_val>0.6822406053543091</left_val>
            <right_val>-0.3736714124679565</right_val></_></_>
        <_>
          <_>
            <feature>
              <rects>
                <_>
                  13 0 4 22 -1.</_>
                <_>
                  15 0 2 11 2.</_>
                <_>
                  13 11 2 11 2.</_></rects>
              <tilted>0</tilted></feature>
            <threshold>1.7980439224629663e-005</threshold>
            <left_val>-0.1643847972154617</left_val>
            <right_val>0.3242836892604828</right_val></_></_>
        <_>
          <_>
            <feature>
              <rects>
                <_>
                  3 8 15 16 -1.</_>
                <_>
                  3 16 15 8 2.</_></rects>
              <tilted>0</tilted></feature>
            <threshold>4.2541110888123512e-003</threshold>
            <left_val>-0.3362182974815369</left_val>
            <right_val>0.6215423941612244</right_val></_></_>
        <_>
          <_>
            <feature>
              <rects>
                <_>
                  12 10 5 14 -1.</_>
                <_>
                  12 17 5 7 2.</_></rects>
              <tilted>0</tilted></feature>
            <threshold>-2.8785709291696548e-003</threshold>
            <left_val>0.1702789068222046</left_val>
            <right_val>-0.5292918086051941</right_val></_></_>
        <_>
          <_>
            <feature>
              <rects>
                <_>
                  4 1 16 1 -1.</_>
                <_>
                  4 1 8 1 2.</_></rects>
              <tilted>1</tilted></feature>
            <threshold>1.1819769861176610e-003</threshold>
            <left_val>-0.4054605066776276</left_val>
            <right_val>0.5562484264373779</right_val></_></_>
        <_>
          <_>
            <feature>
              <rects>
                <_>
                  12 10 5 14 -1.</_>
                <_>
                  12 17 5 7 2.</_></rects>
              <tilted>0</tilted></feature>
            <threshold>5.2844308083876967e-004</threshold>
            <left_val>-0.3632909953594208</left_val>
            <right_val>0.6338632702827454</right_val></_></_>
        <_>
          <_>
            <feature>
              <rects>
                <_>
                  7 10 5 14 -1.</_>
                <_>
                  7 17 5 7 2.</_></rects>
              <tilted>0</tilted></feature>
            <threshold>-2.8489559554145671e-005</threshold>
            <left_val>0.4687956869602203</left_val>
            <right_val>-0.9203730821609497</right_val></_></_>
        <_>
          <_>
            <feature>
              <rects>
                <_>
                  17 4 1 10 -1.</_>
                <_>
                  17 4 1 5 2.</_></rects>
              <tilted>1</tilted></feature>
            <threshold>7.8956742072477937e-004</threshold>
            <left_val>-0.4250690042972565</left_val>
            <right_val>0.2131444066762924</right_val></_></_>
        <_>
          <_>
            <feature>
              <rects>
                <_>
                  2 3 20 12 -1.</_>
                <_>
                  2 9 20 6 2.</_></rects>
              <tilted>0</tilted></feature>
            <threshold>1.8669800192583352e-004</threshold>
            <left_val>-0.7298539876937866</left_val>
            <right_val>0.4732584953308106</right_val></_></_>
        <_>
          <_>
            <feature>
              <rects>
                <_>
                  8 19 12 4 -1.</_>
                <_>
                  8 21 12 2 2.</_></rects>
              <tilted>0</tilted></feature>
            <threshold>-1.9547000993043184e-003</threshold>
            <left_val>0.2002076953649521</left_val>
            <right_val>-0.7168763875961304</right_val></_></_>
        <_>
          <_>
            <feature>
              <rects>
                <_>
                  1 19 6 3 -1.</_>
                <_>
                  3 19 2 3 3.</_></rects>
              <tilted>0</tilted></feature>
            <threshold>-1.1815209873020649e-003</threshold>
            <left_val>0.4985095858573914</left_val>
            <right_val>-0.5343660712242127</right_val></_></_>
        <_>
          <_>
            <feature>
              <rects>
                <_>
                  17 23 2 1 -1.</_>
                <_>
                  17 23 1 1 2.</_></rects>
              <tilted>0</tilted></feature>
            <threshold>-3.9132530218921602e-005</threshold>
            <left_val>0.2336387038230896</left_val>
            <right_val>-0.2041018009185791</right_val></_></_>
        <_>
          <_>
            <feature>
              <rects>
                <_>
                  10 10 3 14 -1.</_>
                <_>
                  11 10 1 14 3.</_></rects>
              <tilted>0</tilted></feature>
            <threshold>1.3384079793468118e-003</threshold>
            <left_val>-0.3159421980381012</left_val>
            <right_val>0.5347911715507507</right_val></_></_>
        <_>
          <_>
            <feature>
              <rects>
                <_>
                  16 0 2 1 -1.</_>
                <_>
                  16 0 1 1 2.</_></rects>
              <tilted>0</tilted></feature>
            <threshold>-4.9847330956254154e-005</threshold>
            <left_val>0.2621293962001801</left_val>
            <right_val>-0.3128790855407715</right_val></_></_>
        <_>
          <_>
            <feature>
              <rects>
                <_>
                  6 0 2 1 -1.</_>
                <_>
                  7 0 1 1 2.</_></rects>
              <tilted>0</tilted></feature>
            <threshold>4.7519799409201369e-005</threshold>
            <left_val>-0.3588986992835999</left_val>
            <right_val>0.5507295727729797</right_val></_></_>
        <_>
          <_>
            <feature>
              <rects>
                <_>
                  16 4 8 12 -1.</_>
                <_>
                  16 7 8 6 2.</_></rects>
              <tilted>0</tilted></feature>
            <threshold>-0.0153208300471306</threshold>
            <left_val>0.4157023131847382</left_val>
            <right_val>-0.4461993873119354</right_val></_></_>
        <_>
          <_>
            <feature>
              <rects>
                <_>
                  0 9 18 14 -1.</_>
                <_>
                  0 9 9 7 2.</_>
                <_>
                  9 16 9 7 2.</_></rects>
              <tilted>0</tilted></feature>
            <threshold>-3.2235330436378717e-003</threshold>
            <left_val>0.4530957043170929</left_val>
            <right_val>-0.4623611867427826</right_val></_></_>
        <_>
          <_>
            <feature>
              <rects>
                <_>
                  9 10 7 3 -1.</_>
                <_>
                  9 11 7 1 3.</_></rects>
              <tilted>0</tilted></feature>
            <threshold>1.4617890119552612e-003</threshold>
            <left_val>-0.3404802083969116</left_val>
            <right_val>0.4897753894329071</right_val></_></_>
        <_>
          <_>
            <feature>
              <rects>
                <_>
                  3 4 10 1 -1.</_>
                <_>
                  8 4 5 1 2.</_></rects>
              <tilted>0</tilted></feature>
            <threshold>-4.3062819167971611e-003</threshold>
            <left_val>0.7104917168617249</left_val>
            <right_val>-0.3728314042091370</right_val></_></_></trees>
      <stage_threshold>-1.7700630426406860</stage_threshold>
      <parent>5</parent>
      <next>-1</next></_>
    <_>
      <trees>
        <_>
          <_>
            <feature>
              <rects>
                <_>
                  6 12 8 12 -1.</_>
                <_>
                  6 18 8 6 2.</_></rects>
              <tilted>0</tilted></feature>
            <threshold>-2.3922449909150600e-003</threshold>
            <left_val>0.6329584121704102</left_val>
            <right_val>-0.9083067178726196</right_val></_></_>
        <_>
          <_>
            <feature>
              <rects>
                <_>
                  18 7 4 8 -1.</_>
                <_>
                  18 11 4 4 2.</_></rects>
              <tilted>0</tilted></feature>
            <threshold>6.1916813137941062e-005</threshold>
            <left_val>-0.5203418731689453</left_val>
            <right_val>0.2077775001525879</right_val></_></_>
        <_>
          <_>
            <feature>
              <rects>
                <_>
                  3 11 6 10 -1.</_>
                <_>
                  3 11 3 5 2.</_>
                <_>
                  6 16 3 5 2.</_></rects>
              <tilted>0</tilted></feature>
            <threshold>5.2811908535659313e-003</threshold>
            <left_val>-0.5122094154357910</left_val>
            <right_val>0.5179867744445801</right_val></_></_>
        <_>
          <_>
            <feature>
              <rects>
                <_>
                  6 4 12 11 -1.</_>
                <_>
                  9 4 6 11 2.</_></rects>
              <tilted>0</tilted></feature>
            <threshold>4.7607009764760733e-004</threshold>
            <left_val>-0.7687230706214905</left_val>
            <right_val>0.3656038939952850</right_val></_></_>
        <_>
          <_>
            <feature>
              <rects>
                <_>
                  4 18 12 6 -1.</_>
                <_>
                  4 18 6 3 2.</_>
                <_>
                  10 21 6 3 2.</_></rects>
              <tilted>0</tilted></feature>
            <threshold>-1.0227309539914131e-003</threshold>
            <left_val>0.2590379118919373</left_val>
            <right_val>-0.8424150943756104</right_val></_></_>
        <_>
          <_>
            <feature>
              <rects>
                <_>
                  16 13 4 4 -1.</_>
                <_>
                  16 13 4 2 2.</_></rects>
              <tilted>1</tilted></feature>
            <threshold>3.3734500175341964e-004</threshold>
            <left_val>-0.4388821125030518</left_val>
            <right_val>0.2493472993373871</right_val></_></_>
        <_>
          <_>
            <feature>
              <rects>
                <_>
                  8 15 4 5 -1.</_>
                <_>
                  8 15 2 5 2.</_></rects>
              <tilted>1</tilted></feature>
            <threshold>5.2886921912431717e-004</threshold>
            <left_val>-0.6619383096694946</left_val>
            <right_val>0.5020471215248108</right_val></_></_>
        <_>
          <_>
            <feature>
              <rects>
                <_>
                  0 18 24 3 -1.</_>
                <_>
                  8 18 8 3 3.</_></rects>
              <tilted>0</tilted></feature>
            <threshold>0.0247284509241581</threshold>
            <left_val>-0.7129315137863159</left_val>
            <right_val>0.6346179246902466</right_val></_></_>
        <_>
          <_>
            <feature>
              <rects>
                <_>
                  3 9 4 4 -1.</_>
                <_>
                  3 11 4 2 2.</_></rects>
              <tilted>0</tilted></feature>
            <threshold>2.3828369739931077e-004</threshold>
            <left_val>-0.8850013017654419</left_val>
            <right_val>0.5343651175498962</right_val></_></_>
        <_>
          <_>
            <feature>
              <rects>
                <_>
                  16 6 2 16 -1.</_>
                <_>
                  12 10 2 8 2.</_></rects>
              <tilted>1</tilted></feature>
            <threshold>-4.3288501910865307e-003</threshold>
            <left_val>0.7297986149787903</left_val>
            <right_val>-0.8238174915313721</right_val></_></_>
        <_>
          <_>
            <feature>
              <rects>
                <_>
                  6 9 9 5 -1.</_>
                <_>
                  9 12 3 5 3.</_></rects>
              <tilted>1</tilted></feature>
            <threshold>8.9833847596310079e-005</threshold>
            <left_val>-0.8236728906631470</left_val>
            <right_val>0.7863209247589111</right_val></_></_>
        <_>
          <_>
            <feature>
              <rects>
                <_>
                  12 0 12 6 -1.</_>
                <_>
                  12 0 12 3 2.</_></rects>
              <tilted>1</tilted></feature>
            <threshold>-4.3106297962367535e-003</threshold>
            <left_val>0.3457817137241364</left_val>
            <right_val>-0.8247045278549194</right_val></_></_>
        <_>
          <_>
            <feature>
              <rects>
                <_>
                  7 0 12 1 -1.</_>
                <_>
                  7 0 6 1 2.</_></rects>
              <tilted>1</tilted></feature>
            <threshold>8.0192281166091561e-004</threshold>
            <left_val>-0.8313410878181458</left_val>
            <right_val>0.6933475136756897</right_val></_></_>
        <_>
          <_>
            <feature>
              <rects>
                <_>
                  6 0 18 11 -1.</_>
                <_>
                  12 0 6 11 3.</_></rects>
              <tilted>0</tilted></feature>
            <threshold>-0.0259279701858759</threshold>
            <left_val>0.6390910148620606</left_val>
            <right_val>-0.7962036728858948</right_val></_></_>
        <_>
          <_>
            <feature>
              <rects>
                <_>
                  7 0 8 14 -1.</_>
                <_>
                  11 0 4 14 2.</_></rects>
              <tilted>0</tilted></feature>
            <threshold>2.1018470579292625e-004</threshold>
            <left_val>-0.7348803877830505</left_val>
            <right_val>0.7968431115150452</right_val></_></_>
        <_>
          <_>
            <feature>
              <rects>
                <_>
                  12 12 9 10 -1.</_>
                <_>
                  12 17 9 5 2.</_></rects>
              <tilted>0</tilted></feature>
            <threshold>-2.0296981092542410e-003</threshold>
            <left_val>0.3433716893196106</left_val>
            <right_val>-0.8240233063697815</right_val></_></_>
        <_>
          <_>
            <feature>
              <rects>
                <_>
                  1 10 22 14 -1.</_>
                <_>
                  1 10 11 7 2.</_>
                <_>
                  12 17 11 7 2.</_></rects>
              <tilted>0</tilted></feature>
            <threshold>6.3100629486143589e-003</threshold>
            <left_val>-0.7740911245346069</left_val>
            <right_val>0.6901128292083740</right_val></_></_>
        <_>
          <_>
            <feature>
              <rects>
                <_>
                  20 19 4 1 -1.</_>
                <_>
                  20 19 2 1 2.</_></rects>
              <tilted>0</tilted></feature>
            <threshold>-1.9235259969718754e-005</threshold>
            <left_val>0.2768085896968842</left_val>
            <right_val>-0.7600129842758179</right_val></_></_>
        <_>
          <_>
            <feature>
              <rects>
                <_>
                  3 1 8 19 -1.</_>
                <_>
                  5 1 4 19 2.</_></rects>
              <tilted>0</tilted></feature>
            <threshold>-2.3127160966396332e-003</threshold>
            <left_val>0.6755977272987366</left_val>
            <right_val>-0.6132265925407410</right_val></_></_>
        <_>
          <_>
            <feature>
              <rects>
                <_>
                  18 0 1 12 -1.</_>
                <_>
                  18 6 1 6 2.</_></rects>
              <tilted>0</tilted></feature>
            <threshold>5.9276417596265674e-004</threshold>
            <left_val>-0.3795217871665955</left_val>
            <right_val>0.7315394878387451</right_val></_></_>
        <_>
          <_>
            <feature>
              <rects>
                <_>
                  8 15 3 3 -1.</_>
                <_>
                  7 16 3 1 3.</_></rects>
              <tilted>1</tilted></feature>
            <threshold>7.9829027527011931e-005</threshold>
            <left_val>-0.7458711862564087</left_val>
            <right_val>0.6455503106117249</right_val></_></_>
        <_>
          <_>
            <feature>
              <rects>
                <_>
                  16 21 2 3 -1.</_>
                <_>
                  16 21 1 3 2.</_></rects>
              <tilted>0</tilted></feature>
            <threshold>-5.8743571571540087e-005</threshold>
            <left_val>0.3823240101337433</left_val>
            <right_val>-0.7640457749366760</right_val></_></_>
        <_>
          <_>
            <feature>
              <rects>
                <_>
                  6 21 2 3 -1.</_>
                <_>
                  7 21 1 3 2.</_></rects>
              <tilted>0</tilted></feature>
            <threshold>-2.6006839107139967e-005</threshold>
            <left_val>0.6309968233108521</left_val>
            <right_val>-0.7362583875656128</right_val></_></_>
        <_>
          <_>
            <feature>
              <rects>
                <_>
                  14 8 8 1 -1.</_>
                <_>
                  14 8 4 1 2.</_></rects>
              <tilted>1</tilted></feature>
            <threshold>2.1117678843438625e-003</threshold>
            <left_val>-0.2715274989604950</left_val>
            <right_val>0.3808093965053558</right_val></_></_>
        <_>
          <_>
            <feature>
              <rects>
                <_>
                  5 3 17 3 -1.</_>
                <_>
                  4 4 17 1 3.</_></rects>
              <tilted>1</tilted></feature>
            <threshold>-2.2661819457425736e-005</threshold>
            <left_val>0.6461589932441711</left_val>
            <right_val>-0.6126648783683777</right_val></_></_>
        <_>
          <_>
            <feature>
              <rects>
                <_>
                  11 10 2 10 -1.</_>
                <_>
                  12 10 1 5 2.</_>
                <_>
                  11 15 1 5 2.</_></rects>
              <tilted>0</tilted></feature>
            <threshold>-1.4257209841161966e-004</threshold>
            <left_val>0.6517580747604370</left_val>
            <right_val>-0.5050593018531799</right_val></_></_>
        <_>
          <_>
            <feature>
              <rects>
                <_>
                  0 3 24 2 -1.</_>
                <_>
                  0 3 12 1 2.</_>
                <_>
                  12 4 12 1 2.</_></rects>
              <tilted>0</tilted></feature>
            <threshold>-4.7342240577563643e-004</threshold>
            <left_val>0.5769491791725159</left_val>
            <right_val>-0.3907155990600586</right_val></_></_>
        <_>
          <_>
            <feature>
              <rects>
                <_>
                  8 11 13 3 -1.</_>
                <_>
                  8 12 13 1 3.</_></rects>
              <tilted>0</tilted></feature>
            <threshold>-5.7582198642194271e-003</threshold>
            <left_val>0.7215595245361328</left_val>
            <right_val>-0.1725312024354935</right_val></_></_>
        <_>
          <_>
            <feature>
              <rects>
                <_>
                  2 11 10 3 -1.</_>
                <_>
                  7 11 5 3 2.</_></rects>
              <tilted>0</tilted></feature>
            <threshold>3.7065029609948397e-003</threshold>
            <left_val>-0.3869518935680389</left_val>
            <right_val>0.5888987779617310</right_val></_></_>
        <_>
          <_>
            <feature>
              <rects>
                <_>
                  16 7 1 16 -1.</_>
                <_>
                  12 11 1 8 2.</_></rects>
              <tilted>1</tilted></feature>
            <threshold>-0.0233724005520344</threshold>
            <left_val>0.6987779140472412</left_val>
            <right_val>-0.1751203984022141</right_val></_></_>
        <_>
          <_>
            <feature>
              <rects>
                <_>
                  4 0 4 18 -1.</_>
                <_>
                  4 0 2 9 2.</_>
                <_>
                  6 9 2 9 2.</_></rects>
              <tilted>0</tilted></feature>
            <threshold>-3.0518020503222942e-003</threshold>
            <left_val>0.6090391874313355</left_val>
            <right_val>-0.3800694942474365</right_val></_></_></trees>
      <stage_threshold>-1.7686040401458740</stage_threshold>
      <parent>6</parent>
      <next>-1</next></_>
    <_>
      <trees>
        <_>
          <_>
            <feature>
              <rects>
                <_>
                  0 6 8 9 -1.</_>
                <_>
                  2 6 4 9 2.</_></rects>
              <tilted>0</tilted></feature>
            <threshold>0.0323467589914799</threshold>
            <left_val>-0.2241754978895187</left_val>
            <right_val>0.7134702205657959</right_val></_></_>
        <_>
          <_>
            <feature>
              <rects>
                <_>
                  14 16 4 3 -1.</_>
                <_>
                  15 17 2 3 2.</_></rects>
              <tilted>1</tilted></feature>
            <threshold>1.7674829578027129e-003</threshold>
            <left_val>-0.3362936079502106</left_val>
            <right_val>0.2907431125640869</right_val></_></_>
        <_>
          <_>
            <feature>
              <rects>
                <_>
                  3 6 10 18 -1.</_>
                <_>
                  3 12 10 6 3.</_></rects>
              <tilted>0</tilted></feature>
            <threshold>0.0469449684023857</threshold>
            <left_val>-0.6963651776313782</left_val>
            <right_val>0.1953056007623673</right_val></_></_>
        <_>
          <_>
            <feature>
              <rects>
                <_>
                  18 3 6 5 -1.</_>
                <_>
                  20 5 2 5 3.</_></rects>
              <tilted>1</tilted></feature>
            <threshold>-1.6373549588024616e-003</threshold>
            <left_val>0.1779938042163849</left_val>
            <right_val>-0.3995304107666016</right_val></_></_>
        <_>
          <_>
            <feature>
              <rects>
                <_>
                  5 0 12 8 -1.</_>
                <_>
                  5 2 12 4 2.</_></rects>
              <tilted>0</tilted></feature>
            <threshold>-0.0272314902395010</threshold>
            <left_val>0.5299760103225708</left_val>
            <right_val>-0.2335236966609955</right_val></_></_>
        <_>
          <_>
            <feature>
              <rects>
                <_>
                  18 3 6 4 -1.</_>
                <_>
                  20 5 2 4 3.</_></rects>
              <tilted>1</tilted></feature>
            <threshold>1.7616939730942249e-003</threshold>
            <left_val>-0.1406009942293167</left_val>
            <right_val>0.2684733867645264</right_val></_></_>
        <_>
          <_>
            <feature>
              <rects>
                <_>
                  7 3 3 4 -1.</_>
                <_>
                  7 3 3 2 2.</_></rects>
              <tilted>1</tilted></feature>
            <threshold>1.9102319129160605e-005</threshold>
            <left_val>-0.4543527960777283</left_val>
            <right_val>0.2805801033973694</right_val></_></_>
        <_>
          <_>
            <feature>
              <rects>
                <_>
                  13 4 2 8 -1.</_>
                <_>
                  13 4 1 8 2.</_></rects>
              <tilted>0</tilted></feature>
            <threshold>5.6298231356777251e-005</threshold>
            <left_val>-0.3677766025066376</left_val>
            <right_val>0.2319242954254150</right_val></_></_>
        <_>
          <_>
            <feature>
              <rects>
                <_>
                  7 5 3 12 -1.</_>
                <_>
                  7 11 3 6 2.</_></rects>
              <tilted>0</tilted></feature>
            <threshold>5.1582570449681953e-005</threshold>
            <left_val>-0.6061115264892578</left_val>
            <right_val>0.1861294955015183</right_val></_></_>
        <_>
          <_>
            <feature>
              <rects>
                <_>
                  12 14 1 10 -1.</_>
                <_>
                  12 19 1 5 2.</_></rects>
              <tilted>0</tilted></feature>
            <threshold>-1.7622920495341532e-005</threshold>
            <left_val>0.1111479029059410</left_val>
            <right_val>-0.6323093175888062</right_val></_></_>
        <_>
          <_>
            <feature>
              <rects>
                <_>
                  3 6 15 18 -1.</_>
                <_>
                  8 12 5 6 9.</_></rects>
              <tilted>0</tilted></feature>
            <threshold>-1.0509239509701729e-003</threshold>
            <left_val>0.7573339939117432</left_val>
            <right_val>-0.2470971941947937</right_val></_></_>
        <_>
          <_>
            <feature>
              <rects>
                <_>
                  13 0 4 22 -1.</_>
                <_>
                  13 0 2 22 2.</_></rects>
              <tilted>0</tilted></feature>
            <threshold>5.6636461522430182e-004</threshold>
            <left_val>-0.2767472863197327</left_val>
            <right_val>0.2502753138542175</right_val></_></_>
        <_>
          <_>
            <feature>
              <rects>
                <_>
                  3 15 7 4 -1.</_>
                <_>
                  3 17 7 2 2.</_></rects>
              <tilted>0</tilted></feature>
            <threshold>-2.1787289369967766e-005</threshold>
            <left_val>0.1872954070568085</left_val>
            <right_val>-0.5946134924888611</right_val></_></_>
        <_>
          <_>
            <feature>
              <rects>
                <_>
                  21 8 3 12 -1.</_>
                <_>
                  17 12 3 4 3.</_></rects>
              <tilted>1</tilted></feature>
            <threshold>0.1312381029129028</threshold>
            <left_val>-0.0217049606144428</left_val>
            <right_val>-0.8713368773460388</right_val></_></_>
        <_>
          <_>
            <feature>
              <rects>
                <_>
                  3 8 12 3 -1.</_>
                <_>
                  7 12 4 3 3.</_></rects>
              <tilted>1</tilted></feature>
            <threshold>-1.7558470135554671e-003</threshold>
            <left_val>0.5046061277389526</left_val>
            <right_val>-0.1389658004045487</right_val></_></_>
        <_>
          <_>
            <feature>
              <rects>
                <_>
                  6 14 14 4 -1.</_>
                <_>
                  13 14 7 2 2.</_>
                <_>
                  6 16 7 2 2.</_></rects>
              <tilted>0</tilted></feature>
            <threshold>-0.0107754999771714</threshold>
            <left_val>-0.2920041084289551</left_val>
            <right_val>0.1207218021154404</right_val></_></_>
        <_>
          <_>
            <feature>
              <rects>
                <_>
                  0 21 24 3 -1.</_>
                <_>
                  6 21 12 3 2.</_></rects>
              <tilted>0</tilted></feature>
            <threshold>-0.0837978422641754</threshold>
            <left_val>0.5772554874420166</left_val>
            <right_val>-0.1557316035032272</right_val></_></_>
        <_>
          <_>
            <feature>
              <rects>
                <_>
                  8 1 9 12 -1.</_>
                <_>
                  8 5 9 4 3.</_></rects>
              <tilted>0</tilted></feature>
            <threshold>0.0658968389034271</threshold>
            <left_val>-0.1594727039337158</left_val>
            <right_val>0.4814971983432770</right_val></_></_>
        <_>
          <_>
            <feature>
              <rects>
                <_>
                  4 9 10 3 -1.</_>
                <_>
                  3 10 10 1 3.</_></rects>
              <tilted>1</tilted></feature>
            <threshold>3.0214691068977118e-003</threshold>
            <left_val>-0.3459456861019135</left_val>
            <right_val>0.2484758049249649</right_val></_></_>
        <_>
          <_>
            <feature>
              <rects>
                <_>
                  17 3 6 12 -1.</_>
                <_>
                  19 3 2 12 3.</_></rects>
              <tilted>0</tilted></feature>
            <threshold>9.3143532285466790e-004</threshold>
            <left_val>-0.1949414014816284</left_val>
            <right_val>0.1288639008998871</right_val></_></_>
        <_>
          <_>
            <feature>
              <rects>
                <_>
                  12 0 10 2 -1.</_>
                <_>
                  12 0 5 2 2.</_></rects>
              <tilted>1</tilted></feature>
            <threshold>5.2734097698703408e-004</threshold>
            <left_val>-0.3684220016002655</left_val>
            <right_val>0.2696363031864166</right_val></_></_>
        <_>
          <_>
            <feature>
              <rects>
                <_>
                  10 6 4 18 -1.</_>
                <_>
                  10 12 4 6 3.</_></rects>
              <tilted>0</tilted></feature>
            <threshold>4.0846859337761998e-004</threshold>
            <left_val>-0.6371818184852600</left_val>
            <right_val>0.1277236044406891</right_val></_></_>
        <_>
          <_>
            <feature>
              <rects>
                <_>
                  0 1 18 5 -1.</_>
                <_>
                  6 1 6 5 3.</_></rects>
              <tilted>0</tilted></feature>
            <threshold>-3.0854760552756488e-005</threshold>
            <left_val>0.3229919075965881</left_val>
            <right_val>-0.4053238928318024</right_val></_></_>
        <_>
          <_>
            <feature>
              <rects>
                <_>
                  0 3 24 7 -1.</_>
                <_>
                  6 3 12 7 2.</_></rects>
              <tilted>0</tilted></feature>
            <threshold>0.0549469105899334</threshold>
            <left_val>-0.3057006895542145</left_val>
            <right_val>0.4133090972900391</right_val></_></_>
        <_>
          <_>
            <feature>
              <rects>
                <_>
                  0 2 24 17 -1.</_>
                <_>
                  8 2 8 17 3.</_></rects>
              <tilted>0</tilted></feature>
            <threshold>-0.0386923886835575</threshold>
            <left_val>0.5375099182128906</left_val>
            <right_val>-0.3130523860454559</right_val></_></_>
        <_>
          <_>
            <feature>
              <rects>
                <_>
                  3 2 20 20 -1.</_>
                <_>
                  8 2 10 20 2.</_></rects>
              <tilted>0</tilted></feature>
            <threshold>0.0222438294440508</threshold>
            <left_val>-0.3508470058441162</left_val>
            <right_val>0.2891671061515808</right_val></_></_>
        <_>
          <_>
            <feature>
              <rects>
                <_>
                  8 11 3 4 -1.</_>
                <_>
                  9 11 1 4 3.</_></rects>
              <tilted>0</tilted></feature>
            <threshold>-1.9923510262742639e-004</threshold>
            <left_val>0.3469026088714600</left_val>
            <right_val>-0.3995485901832581</right_val></_></_>
        <_>
          <_>
            <feature>
              <rects>
                <_>
                  10 8 8 11 -1.</_>
                <_>
                  12 8 4 11 2.</_></rects>
              <tilted>0</tilted></feature>
            <threshold>-6.0829608701169491e-003</threshold>
            <left_val>0.3854742050170898</left_val>
            <right_val>-0.1663594990968704</right_val></_></_>
        <_>
          <_>
            <feature>
              <rects>
                <_>
                  4 4 11 3 -1.</_>
                <_>
                  4 5 11 1 3.</_></rects>
              <tilted>0</tilted></feature>
            <threshold>1.0213460336672142e-004</threshold>
            <left_val>-0.3600954115390778</left_val>
            <right_val>0.3501403927803040</right_val></_></_>
        <_>
          <_>
            <feature>
              <rects>
                <_>
                  11 5 8 2 -1.</_>
                <_>
                  11 6 8 1 2.</_></rects>
              <tilted>0</tilted></feature>
            <threshold>5.8496181736700237e-005</threshold>
            <left_val>-0.2617416083812714</left_val>
            <right_val>0.1545277982950211</right_val></_></_>
        <_>
          <_>
            <feature>
              <rects>
                <_>
                  2 4 15 18 -1.</_>
                <_>
                  2 10 15 6 3.</_></rects>
              <tilted>0</tilted></feature>
            <threshold>4.5946440659463406e-003</threshold>
            <left_val>-0.6403660774230957</left_val>
            <right_val>0.2000264972448349</right_val></_></_>
        <_>
          <_>
            <feature>
              <rects>
                <_>
                  3 11 19 12 -1.</_>
                <_>
                  3 17 19 6 2.</_></rects>
              <tilted>0</tilted></feature>
            <threshold>0.0125324502587318</threshold>
            <left_val>-0.3299869894981384</left_val>
            <right_val>0.7180817723274231</right_val></_></_>
        <_>
          <_>
            <feature>
              <rects>
                <_>
                  4 13 12 10 -1.</_>
                <_>
                  4 18 12 5 2.</_></rects>
              <tilted>0</tilted></feature>
            <threshold>-1.7918800003826618e-003</threshold>
            <left_val>0.2627384066581726</left_val>
            <right_val>-0.8753982782363892</right_val></_></_>
        <_>
          <_>
            <feature>
              <rects>
                <_>
                  13 12 3 4 -1.</_>
                <_>
                  14 12 1 4 3.</_></rects>
              <tilted>0</tilted></feature>
            <threshold>3.7494351272471249e-004</threshold>
            <left_val>-0.3186596930027008</left_val>
            <right_val>0.1605744063854218</right_val></_></_>
        <_>
          <_>
            <feature>
              <rects>
                <_>
                  1 8 18 2 -1.</_>
                <_>
                  1 8 9 1 2.</_>
                <_>
                  10 9 9 1 2.</_></rects>
              <tilted>0</tilted></feature>
            <threshold>3.9361490053124726e-005</threshold>
            <left_val>-0.4481284022331238</left_val>
            <right_val>0.3767057955265045</right_val></_></_>
        <_>
          <_>
            <feature>
              <rects>
                <_>
                  14 18 2 4 -1.</_>
                <_>
                  14 18 2 2 2.</_></rects>
              <tilted>1</tilted></feature>
            <threshold>7.0958041760604829e-005</threshold>
            <left_val>-0.5686423182487488</left_val>
            <right_val>0.1804361939430237</right_val></_></_>
        <_>
          <_>
            <feature>
              <rects>
                <_>
                  11 18 1 2 -1.</_>
                <_>
                  11 18 1 1 2.</_></rects>
              <tilted>1</tilted></feature>
            <threshold>-2.7490910724736750e-004</threshold>
            <left_val>0.5953264236450195</left_val>
            <right_val>-0.4865396022796631</right_val></_></_>
        <_>
          <_>
            <feature>
              <rects>
                <_>
                  9 3 9 16 -1.</_>
                <_>
                  12 3 3 16 3.</_></rects>
              <tilted>0</tilted></feature>
            <threshold>-9.4362329691648483e-003</threshold>
            <left_val>0.4610630869865418</left_val>
            <right_val>-0.1703891009092331</right_val></_></_>
        <_>
          <_>
            <feature>
              <rects>
                <_>
                  7 4 4 16 -1.</_>
                <_>
                  9 4 2 16 2.</_></rects>
              <tilted>0</tilted></feature>
            <threshold>2.0129099721089005e-004</threshold>
            <left_val>-0.5229464769363403</left_val>
            <right_val>0.4110071063041687</right_val></_></_>
        <_>
          <_>
            <feature>
              <rects>
                <_>
                  12 10 3 5 -1.</_>
                <_>
                  13 10 1 5 3.</_></rects>
              <tilted>0</tilted></feature>
            <threshold>-5.0481432117521763e-004</threshold>
            <left_val>0.2445203959941864</left_val>
            <right_val>-0.3826096951961517</right_val></_></_>
        <_>
          <_>
            <feature>
              <rects>
                <_>
                  9 10 3 5 -1.</_>
                <_>
                  10 10 1 5 3.</_></rects>
              <tilted>0</tilted></feature>
            <threshold>-2.1787289369967766e-005</threshold>
            <left_val>0.5443996787071228</left_val>
            <right_val>-0.4063223898410797</right_val></_></_>
        <_>
          <_>
            <feature>
              <rects>
                <_>
                  11 0 3 15 -1.</_>
                <_>
                  12 0 1 15 3.</_></rects>
              <tilted>0</tilted></feature>
            <threshold>9.2873838730156422e-004</threshold>
            <left_val>-0.1434828042984009</left_val>
            <right_val>0.2668037116527557</right_val></_></_>
        <_>
          <_>
            <feature>
              <rects>
                <_>
                  10 4 3 11 -1.</_>
                <_>
                  11 4 1 11 3.</_></rects>
              <tilted>0</tilted></feature>
            <threshold>-4.1748509829631075e-005</threshold>
            <left_val>0.5229752063751221</left_val>
            <right_val>-0.4090541005134583</right_val></_></_>
        <_>
          <_>
            <feature>
              <rects>
                <_>
                  13 16 2 4 -1.</_>
                <_>
                  12 17 2 2 2.</_></rects>
              <tilted>1</tilted></feature>
            <threshold>1.7751010091160424e-005</threshold>
            <left_val>-0.2713428139686585</left_val>
            <right_val>0.2725285887718201</right_val></_></_>
        <_>
          <_>
            <feature>
              <rects>
                <_>
                  9 11 3 4 -1.</_>
                <_>
                  10 11 1 4 3.</_></rects>
              <tilted>0</tilted></feature>
            <threshold>1.0241819545626640e-003</threshold>
            <left_val>-0.3626460134983063</left_val>
            <right_val>0.4539524912834168</right_val></_></_>
        <_>
          <_>
            <feature>
              <rects>
                <_>
                  10 17 8 6 -1.</_>
                <_>
                  10 20 8 3 2.</_></rects>
              <tilted>0</tilted></feature>
            <threshold>-2.1911379881203175e-003</threshold>
            <left_val>0.1510394960641861</left_val>
            <right_val>-0.6145316958427429</right_val></_></_>
        <_>
          <_>
            <feature>
              <rects>
                <_>
                  5 0 14 24 -1.</_>
                <_>
                  5 6 14 12 2.</_></rects>
              <tilted>0</tilted></feature>
            <threshold>-0.0230723600834608</threshold>
            <left_val>0.6684262156486511</left_val>
            <right_val>-0.2503386139869690</right_val></_></_></trees>
      <stage_threshold>-1.4949970245361328</stage_threshold>
      <parent>7</parent>
      <next>-1</next></_>
    <_>
      <trees>
        <_>
          <_>
            <feature>
              <rects>
                <_>
                  0 8 24 16 -1.</_>
                <_>
                  6 8 12 16 2.</_></rects>
              <tilted>0</tilted></feature>
            <threshold>-0.2636060118675232</threshold>
            <left_val>0.7938367724418640</left_val>
            <right_val>-0.2027786970138550</right_val></_></_>
        <_>
          <_>
            <feature>
              <rects>
                <_>
                  0 2 24 15 -1.</_>
                <_>
                  6 2 12 15 2.</_></rects>
              <tilted>0</tilted></feature>
            <threshold>0.2024078071117401</threshold>
            <left_val>-0.1912966072559357</left_val>
            <right_val>0.6256406903266907</right_val></_></_>
        <_>
          <_>
            <feature>
              <rects>
                <_>
                  10 3 3 7 -1.</_>
                <_>
                  11 3 1 7 3.</_></rects>
              <tilted>0</tilted></feature>
            <threshold>-2.0251160021871328e-003</threshold>
            <left_val>-0.6629176139831543</left_val>
            <right_val>0.2047024965286255</right_val></_></_>
        <_>
          <_>
            <feature>
              <rects>
                <_>
                  11 3 3 2 -1.</_>
                <_>
                  12 3 1 2 3.</_></rects>
              <tilted>0</tilted></feature>
            <threshold>-2.3732569534331560e-003</threshold>
            <left_val>-0.8306751251220703</left_val>
            <right_val>0.0730236172676086</right_val></_></_>
        <_>
          <_>
            <feature>
              <rects>
                <_>
                  6 2 6 6 -1.</_>
                <_>
                  8 4 2 6 3.</_></rects>
              <tilted>1</tilted></feature>
            <threshold>0.0329388789832592</threshold>
            <left_val>-0.1635278016328812</left_val>
            <right_val>0.6389796137809753</right_val></_></_>
        <_>
          <_>
            <feature>
              <rects>
                <_>
                  15 8 9 11 -1.</_>
                <_>
                  18 8 3 11 3.</_></rects>
              <tilted>0</tilted></feature>
            <threshold>-0.0471716001629829</threshold>
            <left_val>0.4233393073081970</left_val>
            <right_val>-0.0987384393811226</right_val></_></_>
        <_>
          <_>
            <feature>
              <rects>
                <_>
                  0 7 9 11 -1.</_>
                <_>
                  3 7 3 11 3.</_></rects>
              <tilted>0</tilted></feature>
            <threshold>-0.0627817437052727</threshold>
            <left_val>0.7121449708938599</left_val>
            <right_val>-0.1451590061187744</right_val></_></_>
        <_>
          <_>
            <feature>
              <rects>
                <_>
                  10 1 4 5 -1.</_>
                <_>
                  11 1 2 5 2.</_></rects>
              <tilted>0</tilted></feature>
            <threshold>5.1761181093752384e-003</threshold>
            <left_val>0.1248800978064537</left_val>
            <right_val>-0.9041649103164673</right_val></_></_>
        <_>
          <_>
            <feature>
              <rects>
                <_>
                  9 1 3 6 -1.</_>
                <_>
                  10 1 1 6 3.</_></rects>
              <tilted>0</tilted></feature>
            <threshold>2.9047341085970402e-003</threshold>
            <left_val>0.1185014992952347</left_val>
            <right_val>-0.6888505220413208</right_val></_></_>
        <_>
          <_>
            <feature>
              <rects>
                <_>
                  18 4 6 3 -1.</_>
                <_>
                  18 4 3 3 2.</_></rects>
              <tilted>0</tilted></feature>
            <threshold>-0.0218479204922915</threshold>
            <left_val>0.5251739025115967</left_val>
            <right_val>-0.0699135363101959</right_val></_></_>
        <_>
          <_>
            <feature>
              <rects>
                <_>
                  0 4 6 3 -1.</_>
                <_>
                  3 4 3 3 2.</_></rects>
              <tilted>0</tilted></feature>
            <threshold>0.0122131798416376</threshold>
            <left_val>-0.1650049984455109</left_val>
            <right_val>0.5684804916381836</right_val></_></_></trees>
      <stage_threshold>-0.7274190187454224</stage_threshold>
      <parent>8</parent>
      <next>-1</next></_>
    <_>
      <trees>
        <_>
          <_>
            <feature>
              <rects>
                <_>
                  2 9 17 9 -1.</_>
                <_>
                  2 12 17 3 3.</_></rects>
              <tilted>0</tilted></feature>
            <threshold>0.0935513377189636</threshold>
            <left_val>-0.2703968882560730</left_val>
            <right_val>0.5229551792144775</right_val></_></_>
        <_>
          <_>
            <feature>
              <rects>
                <_>
                  12 5 3 3 -1.</_>
                <_>
                  13 5 1 3 3.</_></rects>
              <tilted>0</tilted></feature>
            <threshold>2.5663271080702543e-003</threshold>
            <left_val>0.1087870001792908</left_val>
            <right_val>-0.6042696237564087</right_val></_></_>
        <_>
          <_>
            <feature>
              <rects>
                <_>
                  9 5 3 1 -1.</_>
                <_>
                  10 5 1 1 3.</_></rects>
              <tilted>0</tilted></feature>
            <threshold>-5.2544288337230682e-004</threshold>
            <left_val>-0.6036322712898254</left_val>
            <right_val>0.2206559926271439</right_val></_></_>
        <_>
          <_>
            <feature>
              <rects>
                <_>
                  13 5 3 2 -1.</_>
                <_>
                  14 5 1 2 3.</_></rects>
              <tilted>0</tilted></feature>
            <threshold>1.9728960469365120e-003</threshold>
            <left_val>0.0206118095666170</left_val>
            <right_val>-0.5531979799270630</right_val></_></_>
        <_>
          <_>
            <feature>
              <rects>
                <_>
                  8 5 3 2 -1.</_>
                <_>
                  9 5 1 2 3.</_></rects>
              <tilted>0</tilted></feature>
            <threshold>-1.7551840282976627e-003</threshold>
            <left_val>-0.8165966272354126</left_val>
            <right_val>0.1247282028198242</right_val></_></_>
        <_>
          <_>
            <feature>
              <rects>
                <_>
                  13 2 3 6 -1.</_>
                <_>
                  14 2 1 6 3.</_></rects>
              <tilted>0</tilted></feature>
            <threshold>-3.0547899659723043e-003</threshold>
            <left_val>-0.5392549037933350</left_val>
            <right_val>0.1055416017770767</right_val></_></_>
        <_>
          <_>
            <feature>
              <rects>
                <_>
                  10 21 3 3 -1.</_>
                <_>
                  11 21 1 3 3.</_></rects>
              <tilted>0</tilted></feature>
            <threshold>-1.6422440530732274e-003</threshold>
            <left_val>-0.6565504074096680</left_val>
            <right_val>0.1368581950664520</right_val></_></_>
        <_>
          <_>
            <feature>
              <rects>
                <_>
                  12 7 1 12 -1.</_>
                <_>
                  9 10 1 6 2.</_></rects>
              <tilted>1</tilted></feature>
            <threshold>-0.0124807301908731</threshold>
            <left_val>0.2314427047967911</left_val>
            <right_val>-0.0784580782055855</right_val></_></_>
        <_>
          <_>
            <feature>
              <rects>
                <_>
                  0 16 24 8 -1.</_>
                <_>
                  6 16 12 8 2.</_></rects>
              <tilted>0</tilted></feature>
            <threshold>-0.1852042973041534</threshold>
            <left_val>0.6724085211753845</left_val>
            <right_val>-0.1270132064819336</right_val></_></_>
        <_>
          <_>
            <feature>
              <rects>
                <_>
                  16 16 3 4 -1.</_>
                <_>
                  15 17 3 2 2.</_></rects>
              <tilted>1</tilted></feature>
            <threshold>-8.4124729037284851e-003</threshold>
            <left_val>-0.7451872825622559</left_val>
            <right_val>0.0705741867423058</right_val></_></_>
        <_>
          <_>
            <feature>
              <rects>
                <_>
                  6 12 8 4 -1.</_>
                <_>
                  5 13 8 2 2.</_></rects>
              <tilted>1</tilted></feature>
            <threshold>7.0238839834928513e-003</threshold>
            <left_val>-0.2454417049884796</left_val>
            <right_val>0.3699828088283539</right_val></_></_>
        <_>
          <_>
            <feature>
              <rects>
                <_>
                  6 2 12 9 -1.</_>
                <_>
                  10 5 4 3 9.</_></rects>
              <tilted>0</tilted></feature>
            <threshold>0.1719333976507187</threshold>
            <left_val>-0.1408095061779022</left_val>
            <right_val>0.6681448221206665</right_val></_></_>
        <_>
          <_>
            <feature>
              <rects>
                <_>
                  8 16 4 3 -1.</_>
                <_>
                  9 17 2 3 2.</_></rects>
              <tilted>1</tilted></feature>
            <threshold>-6.7719197832047939e-003</threshold>
            <left_val>-0.8378204703330994</left_val>
